,Age,Job,Credit amount,Duration,Purpose_car,Purpose_domestic appliances,Purpose_education,Purpose_furniture/equipment,Purpose_radio/TV,Purpose_repairs,Purpose_vacation/others,Sex_male,Housing_own,Housing_rent,Savings_moderate,Savings_no_inf,Savings_quite rich,Savings_rich,Check_moderate,Check_no_inf,Check_rich,Age_cat_Young,Age_cat_Adult,Age_cat_Senior,true_class,predicted_class,errors,clusters,new_clusters
136,-0.7366822487741612,0.22291128503014124,2.097685179585051,0.5415812940354056,1.6599866130651642,-0.07715167498104597,-0.2507849312877596,-0.5477225575051661,-0.6206818038571327,-0.10943513103291655,-0.10943513103291655,0.6206818038571328,0.5750727444570147,-0.45512949491639965,-0.3233808333817773,-0.48329767466414153,-0.2764654065504548,3.7899388337592423,-0.6574217746854059,1.249242194534775,-0.2507849312877596,1.249242194534775,-0.7612090726840087,-0.1918588438173238,0.0,0,0.0,7,-1
76,-0.09869169218570417,0.22291128503014124,0.2994776711943103,1.7608606727030371,-0.6024144966768742,-0.07715167498104597,-0.2507849312877596,-0.5477225575051661,1.6111314908631957,-0.10943513103291655,-0.10943513103291655,0.6206818038571328,0.5750727444570147,-0.45512949491639965,-0.3233808333817773,-0.48329767466414153,-0.2764654065504548,-0.2638565010845042,-0.6574217746854059,-0.8004852897018946,-0.2507849312877596,1.249242194534775,-0.7612090726840087,-0.1918588438173238,1.0,0,1.0,9,-1
280,-1.1012482811104225,0.22291128503014124,0.06851168958732402,-0.4338422088986997,1.6599866130651642,-0.07715167498104597,-0.2507849312877596,-0.5477225575051661,-0.6206818038571327,-0.10943513103291655,-0.10943513103291655,0.6206818038571328,-1.7389104415724013,2.197176872010205,-0.3233808333817773,-0.48329767466414153,-0.2764654065504548,3.7899388337592423,-0.6574217746854059,1.249242194534775,-0.2507849312877596,-0.8004852897018946,-0.7612090726840087,-0.1918588438173238,0.0,0,0.0,1,-1
319,-0.7366822487741612,-1.3467556803904361,0.1749030546491686,-0.4338422088986997,-0.6024144966768742,-0.07715167498104597,-0.2507849312877596,1.8257418583505534,-0.6206818038571327,-0.10943513103291655,-0.10943513103291655,-1.611131490863196,0.5750727444570147,-0.45512949491639965,-0.3233808333817773,-0.48329767466414153,-0.2764654065504548,-0.2638565010845042,-0.6574217746854059,-0.8004852897018946,-0.2507849312877596,1.249242194534775,-0.7612090726840087,-0.1918588438173238,0.0,0,0.0,7,-1
174,-0.8278237568582265,0.22291128503014124,0.08630806337948711,0.05386954256835294,-0.6024144966768742,-0.07715167498104597,3.9874804074753776,-0.5477225575051661,-0.6206818038571327,-0.10943513103291655,-0.10943513103291655,0.6206818038571328,0.5750727444570147,-0.45512949491639965,-0.3233808333817773,-0.48329767466414153,-0.2764654065504548,-0.2638565010845042,-0.6574217746854059,-0.8004852897018946,-0.2507849312877596,1.249242194534775,-0.7612090726840087,-0.1918588438173238,1.0,0,1.0,5,-1
371,-0.18983320026976946,0.22291128503014124,1.1138552110313389,-0.18998633316517338,-0.6024144966768742,-0.07715167498104597,-0.2507849312877596,-0.5477225575051661,1.6111314908631957,-0.10943513103291655,-0.10943513103291655,0.6206818038571328,0.5750727444570147,-0.45512949491639965,-0.3233808333817773,-0.48329767466414153,-0.2764654065504548,-0.2638565010845042,-0.6574217746854059,1.249242194534775,-0.2507849312877596,1.249242194534775,-0.7612090726840087,-0.1918588438173238,0.0,0,0.0,9,-1
210,-0.18983320026976946,0.22291128503014124,-0.0452303516060662,-0.9215539603657523,-0.6024144966768742,-0.07715167498104597,-0.2507849312877596,-0.5477225575051661,1.6111314908631957,-0.10943513103291655,-0.10943513103291655,0.6206818038571328,0.5750727444570147,-0.45512949491639965,-0.3233808333817773,2.069118169655856,-0.2764654065504548,-0.2638565010845042,-0.6574217746854059,1.249242194534775,-0.2507849312877596,1.249242194534775,-0.7612090726840087,-0.1918588438173238,0.0,0,0.0,9,-1
235,-0.46325772452196534,1.7925782504507186,-0.5292143432146756,0.29772541830187926,-0.6024144966768742,-0.07715167498104597,-0.2507849312877596,-0.5477225575051661,1.6111314908631957,-0.10943513103291655,-0.10943513103291655,0.6206818038571328,0.5750727444570147,-0.45512949491639965,-0.3233808333817773,-0.48329767466414153,-0.2764654065504548,-0.2638565010845042,-0.6574217746854059,-0.8004852897018946,-0.2507849312877596,1.249242194534775,-0.7612090726840087,-0.1918588438173238,1.0,1,0.0,9,-1
101,-1.010106773026357,0.22291128503014124,-0.33577549764768544,1.2731489212359846,-0.6024144966768742,-0.07715167498104597,-0.2507849312877596,-0.5477225575051661,1.6111314908631957,-0.10943513103291655,-0.10943513103291655,0.6206818038571328,-1.7389104415724013,2.197176872010205,-0.3233808333817773,-0.48329767466414153,-0.2764654065504548,-0.2638565010845042,1.5210935178995666,-0.8004852897018946,-0.2507849312877596,-0.8004852897018946,-0.7612090726840087,-0.1918588438173238,0.0,0,0.0,1,-1
346,-1.1012482811104225,0.22291128503014124,-0.8932662505717511,-0.5964127927210505,-0.6024144966768742,-0.07715167498104597,-0.2507849312877596,-0.5477225575051661,1.6111314908631957,-0.10943513103291655,-0.10943513103291655,0.6206818038571328,0.5750727444570147,-0.45512949491639965,-0.3233808333817773,-0.48329767466414153,-0.2764654065504548,-0.2638565010845042,1.5210935178995666,-0.8004852897018946,-0.2507849312877596,-0.8004852897018946,-0.7612090726840087,-0.1918588438173238,0.0,1,1.0,8,-1
139,0.8127233886549489,-1.3467556803904361,-0.5067754371289047,-0.677698084632226,-0.6024144966768742,-0.07715167498104597,-0.2507849312877596,-0.5477225575051661,1.6111314908631957,-0.10943513103291655,-0.10943513103291655,-1.611131490863196,-1.7389104415724013,2.197176872010205,-0.3233808333817773,-0.48329767466414153,-0.2764654065504548,-0.2638565010845042,-0.6574217746854059,-0.8004852897018946,3.9874804074753776,-0.8004852897018946,1.3136995286643376,-0.1918588438173238,0.0,0,0.0,2,-1
370,0.08359132398242643,0.22291128503014124,-0.0432959631503963,1.2731489212359846,1.6599866130651642,-0.07715167498104597,-0.2507849312877596,-0.5477225575051661,-0.6206818038571327,-0.10943513103291655,-0.10943513103291655,0.6206818038571328,0.5750727444570147,-0.45512949491639965,-0.3233808333817773,2.069118169655856,-0.2764654065504548,-0.2638565010845042,-0.6574217746854059,1.249242194534775,-0.2507849312877596,-0.8004852897018946,1.3136995286643376,-0.1918588438173238,0.0,0,0.0,2,-1
198,0.08359132398242643,0.22291128503014124,-0.16670994662213603,0.29772541830187926,1.6599866130651642,-0.07715167498104597,-0.2507849312877596,-0.5477225575051661,-0.6206818038571327,-0.10943513103291655,-0.10943513103291655,0.6206818038571328,-1.7389104415724013,-0.45512949491639965,-0.3233808333817773,2.069118169655856,-0.2764654065504548,-0.2638565010845042,1.5210935178995666,-0.8004852897018946,-0.2507849312877596,-0.8004852897018946,1.3136995286643376,-0.1918588438173238,0.0,1,1.0,2,-1
59,-1.1012482811104225,-1.3467556803904361,1.1753687639216417,1.2731489212359846,-0.6024144966768742,-0.07715167498104597,-0.2507849312877596,1.8257418583505534,-0.6206818038571327,-0.10943513103291655,-0.10943513103291655,-1.611131490863196,-1.7389104415724013,2.197176872010205,-0.3233808333817773,-0.48329767466414153,-0.2764654065504548,-0.2638565010845042,-0.6574217746854059,-0.8004852897018946,-0.2507849312877596,-0.8004852897018946,-0.7612090726840087,-0.1918588438173238,1.0,0,1.0,1,-1
328,-0.37211621643790005,0.22291128503014124,0.4960115382903723,1.2731489212359846,-0.6024144966768742,-0.07715167498104597,-0.2507849312877596,-0.5477225575051661,1.6111314908631957,-0.10943513103291655,-0.10943513103291655,0.6206818038571328,0.5750727444570147,-0.45512949491639965,-0.3233808333817773,-0.48329767466414153,-0.2764654065504548,-0.2638565010845042,-0.6574217746854059,-0.8004852897018946,3.9874804074753776,1.249242194534775,-0.7612090726840087,-0.1918588438173238,0.0,1,1.0,9,-1
96,2.362129026084059,0.22291128503014124,-0.45609445959035333,-0.677698084632226,-0.6024144966768742,-0.07715167498104597,3.9874804074753776,-0.5477225575051661,-0.6206818038571327,-0.10943513103291655,-0.10943513103291655,-1.611131490863196,0.5750727444570147,-0.45512949491639965,-0.3233808333817773,2.069118169655856,-0.2764654065504548,-0.2638565010845042,-0.6574217746854059,1.249242194534775,-0.2507849312877596,-0.8004852897018946,-0.7612090726840087,5.212165257037296,0.0,0,0.0,0,-1
312,-0.8278237568582265,0.22291128503014124,0.21591208990937052,0.29772541830187926,-0.6024144966768742,-0.07715167498104597,-0.2507849312877596,1.8257418583505534,-0.6206818038571327,-0.10943513103291655,-0.10943513103291655,-1.611131490863196,0.5750727444570147,-0.45512949491639965,-0.3233808333817773,-0.48329767466414153,-0.2764654065504548,-0.2638565010845042,-0.6574217746854059,-0.8004852897018946,3.9874804074753776,1.249242194534775,-0.7612090726840087,-0.1918588438173238,0.0,0,0.0,7,-1
299,-0.28097470835383476,0.22291128503014124,-0.17251311198914573,0.05386954256835294,-0.6024144966768742,-0.07715167498104597,-0.2507849312877596,1.8257418583505534,-0.6206818038571327,-0.10943513103291655,-0.10943513103291655,0.6206818038571328,0.5750727444570147,-0.45512949491639965,-0.3233808333817773,-0.48329767466414153,-0.2764654065504548,3.7899388337592423,1.5210935178995666,-0.8004852897018946,-0.2507849312877596,1.249242194534775,-0.7612090726840087,-0.1918588438173238,0.0,0,0.0,8,-1
277,1.2684309290752753,-1.3467556803904361,-0.7462527279408386,-0.677698084632226,-0.6024144966768742,-0.07715167498104597,-0.2507849312877596,1.8257418583505534,-0.6206818038571327,-0.10943513103291655,-0.10943513103291655,0.6206818038571328,0.5750727444570147,-0.45512949491639965,-0.3233808333817773,2.069118169655856,-0.2764654065504548,-0.2638565010845042,-0.6574217746854059,-0.8004852897018946,-0.2507849312877596,-0.8004852897018946,1.3136995286643376,-0.1918588438173238,0.0,0,0.0,2,-1
261,1.815279977579667,0.22291128503014124,-0.6143274352641512,0.29772541830187926,-0.6024144966768742,-0.07715167498104597,-0.2507849312877596,-0.5477225575051661,1.6111314908631957,-0.10943513103291655,-0.10943513103291655,-1.611131490863196,0.5750727444570147,-0.45512949491639965,-0.3233808333817773,-0.48329767466414153,-0.2764654065504548,-0.2638565010845042,-0.6574217746854059,-0.8004852897018946,-0.2507849312877596,-0.8004852897018946,1.3136995286643376,-0.1918588438173238,0.0,0,0.0,2,-1
23,0.8127233886549489,0.22291128503014124,-0.5365650193462213,-0.677698084632226,1.6599866130651642,-0.07715167498104597,-0.2507849312877596,-0.5477225575051661,-0.6206818038571327,-0.10943513103291655,-0.10943513103291655,0.6206818038571328,0.5750727444570147,-0.45512949491639965,3.092329219213245,-0.48329767466414153,-0.2764654065504548,-0.2638565010845042,1.5210935178995666,-0.8004852897018946,-0.2507849312877596,-0.8004852897018946,1.3136995286643376,-0.1918588438173238,0.0,0,0.0,2,-1
30,0.08359132398242643,0.22291128503014124,-0.4943953510126174,-0.18998633316517338,-0.6024144966768742,-0.07715167498104597,-0.2507849312877596,-0.5477225575051661,-0.6206818038571327,-0.10943513103291655,-0.10943513103291655,0.6206818038571328,0.5750727444570147,-0.45512949491639965,-0.3233808333817773,-0.48329767466414153,-0.2764654065504548,3.7899388337592423,1.5210935178995666,-0.8004852897018946,-0.2507849312877596,-0.8004852897018946,1.3136995286643376,-0.1918588438173238,0.0,1,1.0,2,-1
10,-0.9189652649422919,0.22291128503014124,-0.7334857641334173,-0.677698084632226,1.6599866130651642,-0.07715167498104597,-0.2507849312877596,-0.5477225575051661,-0.6206818038571327,-0.10943513103291655,-0.10943513103291655,-1.611131490863196,-1.7389104415724013,2.197176872010205,-0.3233808333817773,-0.48329767466414153,-0.2764654065504548,-0.2638565010845042,1.5210935178995666,-0.8004852897018946,-0.2507849312877596,-0.8004852897018946,-0.7612090726840087,-0.1918588438173238,1.0,0,1.0,1,-1
221,-1.1012482811104225,0.22291128503014124,-0.7702391447911454,-0.677698084632226,-0.6024144966768742,-0.07715167498104597,3.9874804074753776,-0.5477225575051661,-0.6206818038571327,-0.10943513103291655,-0.10943513103291655,-1.611131490863196,-1.7389104415724013,2.197176872010205,-0.3233808333817773,2.069118169655856,-0.2764654065504548,-0.2638565010845042,-0.6574217746854059,-0.8004852897018946,-0.2507849312877596,-0.8004852897018946,-0.7612090726840087,-0.1918588438173238,0.0,0,0.0,1,-1
296,-1.3746728053626183,0.22291128503014124,0.5741608318994363,-0.677698084632226,1.6599866130651642,-0.07715167498104597,-0.2507849312877596,-0.5477225575051661,-0.6206818038571327,-0.10943513103291655,-0.10943513103291655,-1.611131490863196,-1.7389104415724013,2.197176872010205,-0.3233808333817773,2.069118169655856,-0.2764654065504548,-0.2638565010845042,-0.6574217746854059,1.249242194534775,-0.2507849312877596,-0.8004852897018946,-0.7612090726840087,-0.1918588438173238,0.0,0,0.0,1,-1
54,1.9975629937477977,0.22291128503014124,-0.3736895113788155,1.2731489212359846,1.6599866130651642,-0.07715167498104597,-0.2507849312877596,-0.5477225575051661,-0.6206818038571327,-0.10943513103291655,-0.10943513103291655,0.6206818038571328,-1.7389104415724013,-0.45512949491639965,-0.3233808333817773,-0.48329767466414153,-0.2764654065504548,-0.2638565010845042,1.5210935178995666,-0.8004852897018946,-0.2507849312877596,-0.8004852897018946,1.3136995286643376,-0.1918588438173238,1.0,0,1.0,2,-1
209,1.815279977579667,0.22291128503014124,-0.6878341965796075,-0.677698084632226,1.6599866130651642,-0.07715167498104597,-0.2507849312877596,-0.5477225575051661,-0.6206818038571327,-0.10943513103291655,-0.10943513103291655,0.6206818038571328,0.5750727444570147,-0.45512949491639965,-0.3233808333817773,-0.48329767466414153,-0.2764654065504548,3.7899388337592423,-0.6574217746854059,1.249242194534775,-0.2507849312877596,-0.8004852897018946,1.3136995286643376,-0.1918588438173238,0.0,0,0.0,2,-1
70,-0.46325772452196534,0.22291128503014124,1.9119838878407405,1.2731489212359846,1.6599866130651642,-0.07715167498104597,-0.2507849312877596,-0.5477225575051661,-0.6206818038571327,-0.10943513103291655,-0.10943513103291655,-1.611131490863196,0.5750727444570147,-0.45512949491639965,-0.3233808333817773,-0.48329767466414153,-0.2764654065504548,-0.2638565010845042,-0.6574217746854059,1.249242194534775,-0.2507849312877596,1.249242194534775,-0.7612090726840087,-0.1918588438173238,0.0,0,0.0,7,-1
107,-0.28097470835383476,0.22291128503014124,1.1169502325604108,-0.677698084632226,1.6599866130651642,-0.07715167498104597,-0.2507849312877596,-0.5477225575051661,-0.6206818038571327,-0.10943513103291655,-0.10943513103291655,0.6206818038571328,0.5750727444570147,-0.45512949491639965,-0.3233808333817773,-0.48329767466414153,-0.2764654065504548,-0.2638565010845042,1.5210935178995666,-0.8004852897018946,-0.2507849312877596,1.249242194534775,-0.7612090726840087,-0.1918588438173238,0.0,0,0.0,8,-1
292,0.8127233886549489,1.7925782504507186,1.248875525237098,0.29772541830187926,1.6599866130651642,-0.07715167498104597,-0.2507849312877596,-0.5477225575051661,-0.6206818038571327,-0.10943513103291655,-0.10943513103291655,-1.611131490863196,-1.7389104415724013,-0.45512949491639965,-0.3233808333817773,-0.48329767466414153,-0.2764654065504548,-0.2638565010845042,-0.6574217746854059,-0.8004852897018946,-0.2507849312877596,-0.8004852897018946,1.3136995286643376,-0.1918588438173238,0.0,1,1.0,2,-1
289,1.17728942099121,0.22291128503014124,-0.838329618430726,0.29772541830187926,-0.6024144966768742,-0.07715167498104597,-0.2507849312877596,-0.5477225575051661,1.6111314908631957,-0.10943513103291655,-0.10943513103291655,0.6206818038571328,0.5750727444570147,-0.45512949491639965,-0.3233808333817773,-0.48329767466414153,-0.2764654065504548,-0.2638565010845042,-0.6574217746854059,-0.8004852897018946,-0.2507849312877596,-0.8004852897018946,1.3136995286643376,-0.1918588438173238,1.0,0,1.0,2,-1
39,-1.010106773026357,0.22291128503014124,-1.0573023916125588,-0.9215539603657523,-0.6024144966768742,-0.07715167498104597,-0.2507849312877596,-0.5477225575051661,1.6111314908631957,-0.10943513103291655,-0.10943513103291655,0.6206818038571328,0.5750727444570147,-0.45512949491639965,-0.3233808333817773,-0.48329767466414153,-0.2764654065504548,-0.2638565010845042,1.5210935178995666,-0.8004852897018946,-0.2507849312877596,-0.8004852897018946,-0.7612090726840087,-0.1918588438173238,0.0,1,1.0,8,-1
307,-0.18983320026976946,-1.3467556803904361,-0.9532322926975181,-0.677698084632226,-0.6024144966768742,-0.07715167498104597,-0.2507849312877596,-0.5477225575051661,1.6111314908631957,-0.10943513103291655,-0.10943513103291655,0.6206818038571328,0.5750727444570147,-0.45512949491639965,3.092329219213245,-0.48329767466414153,-0.2764654065504548,-0.2638565010845042,-0.6574217746854059,-0.8004852897018946,-0.2507849312877596,1.249242194534775,-0.7612090726840087,-0.1918588438173238,1.0,0,1.0,9,-1
66,-0.5543992326060306,0.22291128503014124,-0.39458090670005047,-0.677698084632226,-0.6024144966768742,-0.07715167498104597,-0.2507849312877596,-0.5477225575051661,1.6111314908631957,-0.10943513103291655,-0.10943513103291655,-1.611131490863196,0.5750727444570147,-0.45512949491639965,-0.3233808333817773,-0.48329767466414153,-0.2764654065504548,-0.2638565010845042,-0.6574217746854059,1.249242194534775,-0.2507849312877596,1.249242194534775,-0.7612090726840087,-0.1918588438173238,0.0,0,0.0,9,-1
275,-0.28097470835383476,0.22291128503014124,-0.19108324116357678,-0.9215539603657523,-0.6024144966768742,-0.07715167498104597,-0.2507849312877596,-0.5477225575051661,1.6111314908631957,-0.10943513103291655,-0.10943513103291655,0.6206818038571328,0.5750727444570147,-0.45512949491639965,-0.3233808333817773,-0.48329767466414153,-0.2764654065504548,-0.2638565010845042,-0.6574217746854059,1.249242194534775,-0.2507849312877596,1.249242194534775,-0.7612090726840087,-0.1918588438173238,0.0,1,1.0,9,-1
67,-1.1923897891944877,0.22291128503014124,-0.8449065391800036,-0.677698084632226,1.6599866130651642,-0.07715167498104597,-0.2507849312877596,-0.5477225575051661,-0.6206818038571327,-0.10943513103291655,-0.10943513103291655,0.6206818038571328,0.5750727444570147,-0.45512949491639965,-0.3233808333817773,-0.48329767466414153,-0.2764654065504548,3.7899388337592423,1.5210935178995666,-0.8004852897018946,-0.2507849312877596,-0.8004852897018946,-0.7612090726840087,-0.1918588438173238,0.0,0,0.0,8,-1
318,-0.28097470835383476,0.22291128503014124,-0.9632911126670015,-0.677698084632226,-0.6024144966768742,-0.07715167498104597,3.9874804074753776,-0.5477225575051661,-0.6206818038571327,-0.10943513103291655,-0.10943513103291655,0.6206818038571328,0.5750727444570147,-0.45512949491639965,-0.3233808333817773,-0.48329767466414153,-0.2764654065504548,-0.2638565010845042,-0.6574217746854059,1.249242194534775,-0.2507849312877596,1.249242194534775,-0.7612090726840087,-0.1918588438173238,0.0,1,1.0,5,-1
327,-0.09869169218570417,0.22291128503014124,-0.6445038951726018,0.29772541830187926,1.6599866130651642,-0.07715167498104597,-0.2507849312877596,-0.5477225575051661,-0.6206818038571327,-0.10943513103291655,-0.10943513103291655,-1.611131490863196,0.5750727444570147,-0.45512949491639965,-0.3233808333817773,-0.48329767466414153,-0.2764654065504548,3.7899388337592423,-0.6574217746854059,1.249242194534775,-0.2507849312877596,1.249242194534775,-0.7612090726840087,-0.1918588438173238,0.0,0,0.0,7,-1
382,-0.9189652649422919,0.22291128503014124,-0.738128296427025,0.1351548344795284,1.6599866130651642,-0.07715167498104597,-0.2507849312877596,-0.5477225575051661,-0.6206818038571327,-0.10943513103291655,-0.10943513103291655,-1.611131490863196,-1.7389104415724013,2.197176872010205,-0.3233808333817773,2.069118169655856,-0.2764654065504548,-0.2638565010845042,-0.6574217746854059,1.249242194534775,-0.2507849312877596,-0.8004852897018946,-0.7612090726840087,-0.1918588438173238,0.0,0,0.0,1,-1
218,-1.010106773026357,-1.3467556803904361,-0.06573486923616716,0.29772541830187926,-0.6024144966768742,-0.07715167498104597,-0.2507849312877596,1.8257418583505534,-0.6206818038571327,-0.10943513103291655,-0.10943513103291655,0.6206818038571328,-1.7389104415724013,2.197176872010205,-0.3233808333817773,-0.48329767466414153,-0.2764654065504548,-0.2638565010845042,-0.6574217746854059,-0.8004852897018946,-0.2507849312877596,-0.8004852897018946,-0.7612090726840087,-0.1918588438173238,0.0,0,0.0,1,-1
88,-0.46325772452196534,1.7925782504507186,-0.3644044467916,-0.18998633316517338,1.6599866130651642,-0.07715167498104597,-0.2507849312877596,-0.5477225575051661,-0.6206818038571327,-0.10943513103291655,-0.10943513103291655,0.6206818038571328,0.5750727444570147,-0.45512949491639965,3.092329219213245,-0.48329767466414153,-0.2764654065504548,-0.2638565010845042,-0.6574217746854059,-0.8004852897018946,-0.2507849312877596,1.249242194534775,-0.7612090726840087,-0.1918588438173238,0.0,0,0.0,6,-1
63,-0.9189652649422919,0.22291128503014124,4.344670809691209,2.24857242417009,-0.6024144966768742,-0.07715167498104597,-0.2507849312877596,-0.5477225575051661,-0.6206818038571327,-0.10943513103291655,-0.10943513103291655,0.6206818038571328,0.5750727444570147,-0.45512949491639965,-0.3233808333817773,-0.48329767466414153,-0.2764654065504548,-0.2638565010845042,1.5210935178995666,-0.8004852897018946,-0.2507849312877596,-0.8004852897018946,-0.7612090726840087,-0.1918588438173238,1.0,0,1.0,6,-1
351,-0.5543992326060306,0.22291128503014124,-0.8634766683544346,-0.9215539603657523,-0.6024144966768742,-0.07715167498104597,-0.2507849312877596,1.8257418583505534,-0.6206818038571327,-0.10943513103291655,-0.10943513103291655,-1.611131490863196,0.5750727444570147,-0.45512949491639965,-0.3233808333817773,-0.48329767466414153,-0.2764654065504548,-0.2638565010845042,1.5210935178995666,-0.8004852897018946,-0.2507849312877596,1.249242194534775,-0.7612090726840087,-0.1918588438173238,1.0,0,1.0,8,-1
256,-0.007550184101638867,-1.3467556803904361,-0.19611265114831852,0.29772541830187926,-0.6024144966768742,-0.07715167498104597,-0.2507849312877596,-0.5477225575051661,1.6111314908631957,-0.10943513103291655,-0.10943513103291655,0.6206818038571328,0.5750727444570147,-0.45512949491639965,-0.3233808333817773,-0.48329767466414153,-0.2764654065504548,-0.2638565010845042,-0.6574217746854059,1.249242194534775,-0.2507849312877596,1.249242194534775,-0.7612090726840087,-0.1918588438173238,0.0,0,0.0,9,-1
168,-0.9189652649422919,0.22291128503014124,0.3021858150322482,0.29772541830187926,-0.6024144966768742,-0.07715167498104597,-0.2507849312877596,1.8257418583505534,-0.6206818038571327,-0.10943513103291655,-0.10943513103291655,-1.611131490863196,-1.7389104415724013,2.197176872010205,-0.3233808333817773,-0.48329767466414153,-0.2764654065504548,-0.2638565010845042,-0.6574217746854059,1.249242194534775,-0.2507849312877596,-0.8004852897018946,-0.7612090726840087,-0.1918588438173238,0.0,0,0.0,1,-1
86,-0.7366822487741612,0.22291128503014124,-0.7334857641334173,-0.18998633316517338,-0.6024144966768742,-0.07715167498104597,-0.2507849312877596,1.8257418583505534,-0.6206818038571327,-0.10943513103291655,-0.10943513103291655,-1.611131490863196,0.5750727444570147,-0.45512949491639965,-0.3233808333817773,-0.48329767466414153,-0.2764654065504548,-0.2638565010845042,1.5210935178995666,-0.8004852897018946,-0.2507849312877596,1.249242194534775,-0.7612090726840087,-0.1918588438173238,0.0,1,1.0,8,-1
184,0.08359132398242643,0.22291128503014124,-0.8924924951894831,-0.18998633316517338,1.6599866130651642,-0.07715167498104597,-0.2507849312877596,-0.5477225575051661,-0.6206818038571327,-0.10943513103291655,-0.10943513103291655,0.6206818038571328,0.5750727444570147,-0.45512949491639965,-0.3233808333817773,-0.48329767466414153,-0.2764654065504548,-0.2638565010845042,1.5210935178995666,-0.8004852897018946,-0.2507849312877596,-0.8004852897018946,1.3136995286643376,-0.1918588438173238,1.0,0,1.0,2,-1
294,0.9950064048230794,1.7925782504507186,1.7169975315092145,2.24857242417009,-0.6024144966768742,-0.07715167498104597,-0.2507849312877596,-0.5477225575051661,-0.6206818038571327,-0.10943513103291655,-0.10943513103291655,0.6206818038571328,0.5750727444570147,-0.45512949491639965,-0.3233808333817773,2.069118169655856,-0.2764654065504548,-0.2638565010845042,-0.6574217746854059,1.249242194534775,-0.2507849312877596,-0.8004852897018946,1.3136995286643376,-0.1918588438173238,0.0,0,0.0,2,-1
260,-0.7366822487741612,0.22291128503014124,-0.5934360399429164,-0.677698084632226,-0.6024144966768742,-0.07715167498104597,-0.2507849312877596,1.8257418583505534,-0.6206818038571327,-0.10943513103291655,-0.10943513103291655,0.6206818038571328,0.5750727444570147,-0.45512949491639965,-0.3233808333817773,-0.48329767466414153,-0.2764654065504548,-0.2638565010845042,-0.6574217746854059,-0.8004852897018946,-0.2507849312877596,1.249242194534775,-0.7612090726840087,-0.1918588438173238,0.0,1,1.0,7,-1
237,2.362129026084059,-1.3467556803904361,-0.16400180278419815,0.05386954256835294,-0.6024144966768742,-0.07715167498104597,-0.2507849312877596,-0.5477225575051661,-0.6206818038571327,-0.10943513103291655,-0.10943513103291655,0.6206818038571328,-1.7389104415724013,2.197176872010205,3.092329219213245,-0.48329767466414153,-0.2764654065504548,-0.2638565010845042,1.5210935178995666,-0.8004852897018946,-0.2507849312877596,-0.8004852897018946,-0.7612090726840087,5.212165257037296,1.0,0,1.0,0,-1
265,0.17473283206649173,0.22291128503014124,-0.9242164658624695,-0.4338422088986997,-0.6024144966768742,-0.07715167498104597,-0.2507849312877596,-0.5477225575051661,1.6111314908631957,-0.10943513103291655,-0.10943513103291655,0.6206818038571328,0.5750727444570147,-0.45512949491639965,-0.3233808333817773,-0.48329767466414153,-0.2764654065504548,-0.2638565010845042,1.5210935178995666,-0.8004852897018946,-0.2507849312877596,-0.8004852897018946,1.3136995286643376,-0.1918588438173238,1.0,0,1.0,2,-1
55,-0.8278237568582265,-1.3467556803904361,-0.9315671419940151,-1.1654098360992786,1.6599866130651642,-0.07715167498104597,-0.2507849312877596,-0.5477225575051661,-0.6206818038571327,-0.10943513103291655,-0.10943513103291655,0.6206818038571328,0.5750727444570147,-0.45512949491639965,-0.3233808333817773,2.069118169655856,-0.2764654065504548,-0.2638565010845042,-0.6574217746854059,1.249242194534775,-0.2507849312877596,1.249242194534775,-0.7612090726840087,-0.1918588438173238,0.0,0,0.0,7,-1
120,-0.9189652649422919,0.22291128503014124,-0.5245718109210679,0.05386954256835294,-0.6024144966768742,-0.07715167498104597,-0.2507849312877596,-0.5477225575051661,1.6111314908631957,-0.10943513103291655,-0.10943513103291655,-1.611131490863196,0.5750727444570147,-0.45512949491639965,-0.3233808333817773,-0.48329767466414153,-0.2764654065504548,-0.2638565010845042,-0.6574217746854059,-0.8004852897018946,-0.2507849312877596,-0.8004852897018946,-0.7612090726840087,-0.1918588438173238,1.0,0,1.0,9,-1
215,0.35701584823462235,-1.3467556803904361,-0.8739223660150521,-1.1654098360992786,-0.6024144966768742,-0.07715167498104597,3.9874804074753776,-0.5477225575051661,-0.6206818038571327,-0.10943513103291655,-0.10943513103291655,-1.611131490863196,0.5750727444570147,-0.45512949491639965,-0.3233808333817773,2.069118169655856,-0.2764654065504548,-0.2638565010845042,1.5210935178995666,-0.8004852897018946,-0.2507849312877596,-0.8004852897018946,1.3136995286643376,-0.1918588438173238,0.0,0,0.0,2,-1
25,0.08359132398242643,-1.3467556803904361,-0.7029224265338327,-1.1654098360992786,-0.6024144966768742,-0.07715167498104597,-0.2507849312877596,1.8257418583505534,-0.6206818038571327,-0.10943513103291655,-0.10943513103291655,0.6206818038571328,0.5750727444570147,-0.45512949491639965,-0.3233808333817773,-0.48329767466414153,-0.2764654065504548,-0.2638565010845042,-0.6574217746854059,-0.8004852897018946,-0.2507849312877596,-0.8004852897018946,1.3136995286643376,-0.1918588438173238,0.0,0,0.0,2,-1
72,1.450713945243406,1.7925782504507186,-0.7841667416719686,-1.0028392522769278,-0.6024144966768742,-0.07715167498104597,-0.2507849312877596,-0.5477225575051661,-0.6206818038571327,-0.10943513103291655,9.137833441248533,0.6206818038571328,-1.7389104415724013,-0.45512949491639965,-0.3233808333817773,-0.48329767466414153,-0.2764654065504548,-0.2638565010845042,-0.6574217746854059,-0.8004852897018946,-0.2507849312877596,-0.8004852897018946,1.3136995286643376,-0.1918588438173238,0.0,0,0.0,4,-1
44,2.088704501831863,-1.3467556803904361,1.1420972824841196,2.24857242417009,1.6599866130651642,-0.07715167498104597,-0.2507849312877596,-0.5477225575051661,-0.6206818038571327,-0.10943513103291655,-0.10943513103291655,-1.611131490863196,-1.7389104415724013,-0.45512949491639965,-0.3233808333817773,-0.48329767466414153,-0.2764654065504548,-0.2638565010845042,-0.6574217746854059,-0.8004852897018946,-0.2507849312877596,-0.8004852897018946,1.3136995286643376,-0.1918588438173238,1.0,0,1.0,2,-1
247,-0.007550184101638867,0.22291128503014124,-0.7686916340266094,-1.1654098360992786,1.6599866130651642,-0.07715167498104597,-0.2507849312877596,-0.5477225575051661,-0.6206818038571327,-0.10943513103291655,-0.10943513103291655,0.6206818038571328,-1.7389104415724013,2.197176872010205,3.092329219213245,-0.48329767466414153,-0.2764654065504548,-0.2638565010845042,-0.6574217746854059,1.249242194534775,-0.2507849312877596,1.249242194534775,-0.7612090726840087,-0.1918588438173238,0.0,0,0.0,1,-1
281,1.3595724371593407,0.22291128503014124,-0.6255468883070368,-0.677698084632226,-0.6024144966768742,-0.07715167498104597,-0.2507849312877596,1.8257418583505534,-0.6206818038571327,-0.10943513103291655,-0.10943513103291655,0.6206818038571328,0.5750727444570147,-0.45512949491639965,-0.3233808333817773,-0.48329767466414153,-0.2764654065504548,-0.2638565010845042,-0.6574217746854059,1.249242194534775,-0.2507849312877596,-0.8004852897018946,1.3136995286643376,-0.1918588438173238,0.0,0,0.0,2,-1
244,-0.007550184101638867,-1.3467556803904361,0.09907502718690847,-0.677698084632226,-0.6024144966768742,-0.07715167498104597,3.9874804074753776,-0.5477225575051661,-0.6206818038571327,-0.10943513103291655,-0.10943513103291655,-1.611131490863196,0.5750727444570147,-0.45512949491639965,-0.3233808333817773,-0.48329767466414153,3.617089069035117,-0.2638565010845042,-0.6574217746854059,1.249242194534775,-0.2507849312877596,1.249242194534775,-0.7612090726840087,-0.1918588438173238,0.0,0,0.0,5,-1
321,-0.28097470835383476,0.22291128503014124,-0.4847234087342679,0.29772541830187926,-0.6024144966768742,-0.07715167498104597,-0.2507849312877596,-0.5477225575051661,1.6111314908631957,-0.10943513103291655,-0.10943513103291655,0.6206818038571328,0.5750727444570147,-0.45512949491639965,-0.3233808333817773,-0.48329767466414153,-0.2764654065504548,-0.2638565010845042,-0.6574217746854059,-0.8004852897018946,-0.2507849312877596,1.249242194534775,-0.7612090726840087,-0.1918588438173238,1.0,1,0.0,9,-1
158,0.26587434015055705,0.22291128503014124,0.12422207711061718,0.29772541830187926,1.6599866130651642,-0.07715167498104597,-0.2507849312877596,-0.5477225575051661,-0.6206818038571327,-0.10943513103291655,-0.10943513103291655,0.6206818038571328,0.5750727444570147,-0.45512949491639965,3.092329219213245,-0.48329767466414153,-0.2764654065504548,-0.2638565010845042,1.5210935178995666,-0.8004852897018946,-0.2507849312877596,-0.8004852897018946,1.3136995286643376,-0.1918588438173238,0.0,0,0.0,2,-1
309,-1.1923897891944877,-1.3467556803904361,-1.1277141313989432,-0.9215539603657523,1.6599866130651642,-0.07715167498104597,-0.2507849312877596,-0.5477225575051661,-0.6206818038571327,-0.10943513103291655,-0.10943513103291655,0.6206818038571328,-1.7389104415724013,2.197176872010205,-0.3233808333817773,-0.48329767466414153,-0.2764654065504548,-0.2638565010845042,1.5210935178995666,-0.8004852897018946,-0.2507849312877596,-0.8004852897018946,-0.7612090726840087,-0.1918588438173238,0.0,0,0.0,1,-1
60,-0.7366822487741612,0.22291128503014124,-0.6963455057845551,-0.9215539603657523,-0.6024144966768742,-0.07715167498104597,-0.2507849312877596,-0.5477225575051661,-0.6206818038571327,-0.10943513103291655,-0.10943513103291655,0.6206818038571328,0.5750727444570147,-0.45512949491639965,-0.3233808333817773,-0.48329767466414153,-0.2764654065504548,-0.2638565010845042,1.5210935178995666,-0.8004852897018946,-0.2507849312877596,1.249242194534775,-0.7612090726840087,-0.1918588438173238,0.0,0,0.0,8,-1
298,0.7215818805708836,0.22291128503014124,-0.2614949809499612,-0.18998633316517338,-0.6024144966768742,-0.07715167498104597,-0.2507849312877596,1.8257418583505534,-0.6206818038571327,-0.10943513103291655,-0.10943513103291655,0.6206818038571328,0.5750727444570147,-0.45512949491639965,-0.3233808333817773,-0.48329767466414153,-0.2764654065504548,-0.2638565010845042,-0.6574217746854059,1.249242194534775,-0.2507849312877596,-0.8004852897018946,1.3136995286643376,-0.1918588438173238,0.0,0,0.0,2,-1
314,-0.5543992326060306,-1.3467556803904361,-0.6564971035977551,-1.3279804199216294,1.6599866130651642,-0.07715167498104597,-0.2507849312877596,-0.5477225575051661,-0.6206818038571327,-0.10943513103291655,-0.10943513103291655,0.6206818038571328,0.5750727444570147,-0.45512949491639965,-0.3233808333817773,2.069118169655856,-0.2764654065504548,-0.2638565010845042,-0.6574217746854059,-0.8004852897018946,3.9874804074753776,1.249242194534775,-0.7612090726840087,-0.1918588438173238,0.0,0,0.0,7,-1
310,0.44815735631868764,-2.9164226458110134,0.8472964818400265,2.24857242417009,-0.6024144966768742,-0.07715167498104597,-0.2507849312877596,-0.5477225575051661,-0.6206818038571327,-0.10943513103291655,9.137833441248533,0.6206818038571328,-1.7389104415724013,-0.45512949491639965,-0.3233808333817773,2.069118169655856,-0.2764654065504548,-0.2638565010845042,1.5210935178995666,-0.8004852897018946,-0.2507849312877596,-0.8004852897018946,1.3136995286643376,-0.1918588438173238,0.0,0,0.0,4,-1
361,0.17473283206649173,1.7925782504507186,0.08050489801247741,-0.677698084632226,-0.6024144966768742,-0.07715167498104597,-0.2507849312877596,-0.5477225575051661,1.6111314908631957,-0.10943513103291655,-0.10943513103291655,0.6206818038571328,0.5750727444570147,-0.45512949491639965,-0.3233808333817773,2.069118169655856,-0.2764654065504548,-0.2638565010845042,-0.6574217746854059,-0.8004852897018946,3.9874804074753776,-0.8004852897018946,1.3136995286643376,-0.1918588438173238,0.0,0,0.0,2,-1
110,-0.37211621643790005,0.22291128503014124,-0.6739065996987843,-1.1654098360992786,-0.6024144966768742,-0.07715167498104597,-0.2507849312877596,-0.5477225575051661,-0.6206818038571327,-0.10943513103291655,-0.10943513103291655,0.6206818038571328,0.5750727444570147,-0.45512949491639965,3.092329219213245,-0.48329767466414153,-0.2764654065504548,-0.2638565010845042,1.5210935178995666,-0.8004852897018946,-0.2507849312877596,1.249242194534775,-0.7612090726840087,-0.1918588438173238,0.0,1,1.0,8,-1
363,-1.283531297278553,0.22291128503014124,-0.5512663716093125,-1.1654098360992786,-0.6024144966768742,-0.07715167498104597,-0.2507849312877596,1.8257418583505534,-0.6206818038571327,-0.10943513103291655,-0.10943513103291655,0.6206818038571328,-1.7389104415724013,2.197176872010205,-0.3233808333817773,-0.48329767466414153,-0.2764654065504548,-0.2638565010845042,-0.6574217746854059,1.249242194534775,-0.2507849312877596,-0.8004852897018946,-0.7612090726840087,-0.1918588438173238,0.0,0,0.0,1,-1
254,-1.010106773026357,0.22291128503014124,-0.44913066114994166,-0.9215539603657523,-0.6024144966768742,-0.07715167498104597,-0.2507849312877596,1.8257418583505534,-0.6206818038571327,-0.10943513103291655,-0.10943513103291655,0.6206818038571328,0.5750727444570147,-0.45512949491639965,-0.3233808333817773,2.069118169655856,-0.2764654065504548,-0.2638565010845042,1.5210935178995666,-0.8004852897018946,-0.2507849312877596,-0.8004852897018946,-0.7612090726840087,-0.1918588438173238,0.0,0,0.0,8,-1
259,1.9975629937477977,-1.3467556803904361,-0.7880355185833084,-0.7589833765434014,-0.6024144966768742,-0.07715167498104597,-0.2507849312877596,-0.5477225575051661,1.6111314908631957,-0.10943513103291655,-0.10943513103291655,-1.611131490863196,0.5750727444570147,-0.45512949491639965,3.092329219213245,-0.48329767466414153,-0.2764654065504548,-0.2638565010845042,-0.6574217746854059,1.249242194534775,-0.2507849312877596,-0.8004852897018946,1.3136995286643376,-0.1918588438173238,0.0,1,1.0,2,-1
377,0.08359132398242643,0.22291128503014124,-0.9071938474525744,-1.0841245441881031,-0.6024144966768742,-0.07715167498104597,-0.2507849312877596,-0.5477225575051661,1.6111314908631957,-0.10943513103291655,-0.10943513103291655,0.6206818038571328,-1.7389104415724013,-0.45512949491639965,-0.3233808333817773,2.069118169655856,-0.2764654065504548,-0.2638565010845042,-0.6574217746854059,1.249242194534775,-0.2507849312877596,-0.8004852897018946,1.3136995286643376,-0.1918588438173238,0.0,1,1.0,2,-1
137,2.8178365665043854,-1.3467556803904361,-0.9381440627432929,-0.677698084632226,-0.6024144966768742,-0.07715167498104597,-0.2507849312877596,-0.5477225575051661,1.6111314908631957,-0.10943513103291655,-0.10943513103291655,0.6206818038571328,0.5750727444570147,-0.45512949491639965,-0.3233808333817773,-0.48329767466414153,3.617089069035117,-0.2638565010845042,1.5210935178995666,-0.8004852897018946,-0.2507849312877596,-0.8004852897018946,-0.7612090726840087,5.212165257037296,1.0,0,1.0,0,-1
355,-1.1012482811104225,-1.3467556803904361,-0.7524427709989823,0.29772541830187926,1.6599866130651642,-0.07715167498104597,-0.2507849312877596,-0.5477225575051661,-0.6206818038571327,-0.10943513103291655,-0.10943513103291655,0.6206818038571328,0.5750727444570147,-0.45512949491639965,-0.3233808333817773,-0.48329767466414153,-0.2764654065504548,-0.2638565010845042,1.5210935178995666,-0.8004852897018946,-0.2507849312877596,-0.8004852897018946,-0.7612090726840087,-0.1918588438173238,1.0,1,0.0,8,-1
365,0.08359132398242643,0.22291128503014124,-0.6379269744233241,-0.677698084632226,-0.6024144966768742,-0.07715167498104597,-0.2507849312877596,-0.5477225575051661,-0.6206818038571327,-0.10943513103291655,-0.10943513103291655,0.6206818038571328,0.5750727444570147,-0.45512949491639965,-0.3233808333817773,-0.48329767466414153,-0.2764654065504548,-0.2638565010845042,-0.6574217746854059,1.249242194534775,-0.2507849312877596,-0.8004852897018946,1.3136995286643376,-0.1918588438173238,0.0,0,0.0,2,-1
199,0.44815735631868764,1.7925782504507186,0.42792106465079177,-0.18998633316517338,-0.6024144966768742,-0.07715167498104597,-0.2507849312877596,1.8257418583505534,-0.6206818038571327,-0.10943513103291655,-0.10943513103291655,0.6206818038571328,0.5750727444570147,-0.45512949491639965,-0.3233808333817773,-0.48329767466414153,-0.2764654065504548,-0.2638565010845042,1.5210935178995666,-0.8004852897018946,-0.2507849312877596,-0.8004852897018946,1.3136995286643376,-0.1918588438173238,1.0,0,1.0,2,-1
213,2.8178365665043854,1.7925782504507186,-0.4963297394682873,0.7854371697689319,-0.6024144966768742,-0.07715167498104597,-0.2507849312877596,-0.5477225575051661,-0.6206818038571327,-0.10943513103291655,-0.10943513103291655,0.6206818038571328,0.5750727444570147,-0.45512949491639965,-0.3233808333817773,-0.48329767466414153,-0.2764654065504548,-0.2638565010845042,-0.6574217746854059,-0.8004852897018946,3.9874804074753776,-0.8004852897018946,-0.7612090726840087,5.212165257037296,1.0,0,1.0,0,-1
332,-1.010106773026357,1.7925782504507186,1.6314975617686047,3.223995927104195,1.6599866130651642,-0.07715167498104597,-0.2507849312877596,-0.5477225575051661,-0.6206818038571327,-0.10943513103291655,-0.10943513103291655,-1.611131490863196,0.5750727444570147,-0.45512949491639965,3.092329219213245,-0.48329767466414153,-0.2764654065504548,-0.2638565010845042,1.5210935178995666,-0.8004852897018946,-0.2507849312877596,-0.8004852897018946,-0.7612090726840087,-0.1918588438173238,1.0,1,0.0,6,-1
208,-1.283531297278553,-1.3467556803904361,1.306520301216061,0.29772541830187926,-0.6024144966768742,-0.07715167498104597,-0.2507849312877596,-0.5477225575051661,-0.6206818038571327,-0.10943513103291655,-0.10943513103291655,0.6206818038571328,0.5750727444570147,-0.45512949491639965,-0.3233808333817773,-0.48329767466414153,-0.2764654065504548,-0.2638565010845042,-0.6574217746854059,-0.8004852897018946,-0.2507849312877596,-0.8004852897018946,-0.7612090726840087,-0.1918588438173238,0.0,0,0.0,7,-1
78,0.35701584823462235,-1.3467556803904361,2.416085519388317,2.7362841756371425,1.6599866130651642,-0.07715167498104597,-0.2507849312877596,-0.5477225575051661,-0.6206818038571327,-0.10943513103291655,-0.10943513103291655,0.6206818038571328,0.5750727444570147,-0.45512949491639965,-0.3233808333817773,2.069118169655856,-0.2764654065504548,-0.2638565010845042,-0.6574217746854059,1.249242194534775,-0.2507849312877596,-0.8004852897018946,1.3136995286643376,-0.1918588438173238,0.0,0,0.0,2,-1
29,2.5444120422521896,0.22291128503014124,1.4102035224399678,3.223995927104195,-0.6024144966768742,-0.07715167498104597,-0.2507849312877596,-0.5477225575051661,-0.6206818038571327,-0.10943513103291655,-0.10943513103291655,0.6206818038571328,0.5750727444570147,-0.45512949491639965,-0.3233808333817773,-0.48329767466414153,-0.2764654065504548,-0.2638565010845042,-0.6574217746854059,-0.8004852897018946,-0.2507849312877596,-0.8004852897018946,-0.7612090726840087,5.212165257037296,1.0,0,1.0,0,-1
165,-0.28097470835383476,0.22291128503014124,-0.08237060995492831,-1.1654098360992786,-0.6024144966768742,-0.07715167498104597,-0.2507849312877596,1.8257418583505534,-0.6206818038571327,-0.10943513103291655,-0.10943513103291655,0.6206818038571328,0.5750727444570147,-0.45512949491639965,-0.3233808333817773,-0.48329767466414153,3.617089069035117,-0.2638565010845042,-0.6574217746854059,1.249242194534775,-0.2507849312877596,1.249242194534775,-0.7612090726840087,-0.1918588438173238,0.0,0,0.0,7,-1
65,1.17728942099121,0.22291128503014124,0.7734028428334362,0.5415812940354056,-0.6024144966768742,-0.07715167498104597,-0.2507849312877596,-0.5477225575051661,-0.6206818038571327,9.137833441248533,-0.10943513103291655,0.6206818038571328,0.5750727444570147,-0.45512949491639965,-0.3233808333817773,2.069118169655856,-0.2764654065504548,-0.2638565010845042,-0.6574217746854059,1.249242194534775,-0.2507849312877596,-0.8004852897018946,1.3136995286643376,-0.1918588438173238,0.0,0,0.0,2,-1
141,-0.46325772452196534,1.7925782504507186,0.6205861548355139,1.2731489212359846,-0.6024144966768742,-0.07715167498104597,-0.2507849312877596,-0.5477225575051661,1.6111314908631957,-0.10943513103291655,-0.10943513103291655,-1.611131490863196,0.5750727444570147,-0.45512949491639965,-0.3233808333817773,-0.48329767466414153,-0.2764654065504548,-0.2638565010845042,1.5210935178995666,-0.8004852897018946,-0.2507849312877596,1.249242194534775,-0.7612090726840087,-0.1918588438173238,0.0,0,0.0,6,-1
331,-0.46325772452196534,0.22291128503014124,-0.5133523578781825,-0.18998633316517338,-0.6024144966768742,-0.07715167498104597,3.9874804074753776,-0.5477225575051661,-0.6206818038571327,-0.10943513103291655,-0.10943513103291655,-1.611131490863196,0.5750727444570147,-0.45512949491639965,3.092329219213245,-0.48329767466414153,-0.2764654065504548,-0.2638565010845042,-0.6574217746854059,1.249242194534775,-0.2507849312877596,1.249242194534775,-0.7612090726840087,-0.1918588438173238,1.0,0,1.0,5,-1
249,-1.1923897891944877,0.22291128503014124,-1.0669743338909083,-0.18998633316517338,-0.6024144966768742,-0.07715167498104597,-0.2507849312877596,-0.5477225575051661,1.6111314908631957,-0.10943513103291655,-0.10943513103291655,-1.611131490863196,-1.7389104415724013,2.197176872010205,-0.3233808333817773,-0.48329767466414153,-0.2764654065504548,-0.2638565010845042,-0.6574217746854059,1.249242194534775,-0.2507849312877596,-0.8004852897018946,-0.7612090726840087,-0.1918588438173238,1.0,1,0.0,1,-1
305,-0.18983320026976946,0.22291128503014124,-0.6375400967321901,-1.1654098360992786,-0.6024144966768742,-0.07715167498104597,-0.2507849312877596,1.8257418583505534,-0.6206818038571327,-0.10943513103291655,-0.10943513103291655,0.6206818038571328,0.5750727444570147,-0.45512949491639965,-0.3233808333817773,-0.48329767466414153,-0.2764654065504548,3.7899388337592423,-0.6574217746854059,1.249242194534775,-0.2507849312877596,1.249242194534775,-0.7612090726840087,-0.1918588438173238,0.0,0,0.0,7,-1
49,-0.6455407406900959,0.22291128503014124,-0.43249492043118054,-0.677698084632226,-0.6024144966768742,-0.07715167498104597,-0.2507849312877596,-0.5477225575051661,1.6111314908631957,-0.10943513103291655,-0.10943513103291655,-1.611131490863196,0.5750727444570147,-0.45512949491639965,3.092329219213245,-0.48329767466414153,-0.2764654065504548,-0.2638565010845042,-0.6574217746854059,1.249242194534775,-0.2507849312877596,1.249242194534775,-0.7612090726840087,-0.1918588438173238,0.0,0,0.0,9,-1
2,1.2684309290752753,-1.3467556803904361,-0.42359673353509897,-0.677698084632226,-0.6024144966768742,-0.07715167498104597,3.9874804074753776,-0.5477225575051661,-0.6206818038571327,-0.10943513103291655,-0.10943513103291655,0.6206818038571328,0.5750727444570147,-0.45512949491639965,-0.3233808333817773,-0.48329767466414153,-0.2764654065504548,-0.2638565010845042,-0.6574217746854059,1.249242194534775,-0.2507849312877596,-0.8004852897018946,1.3136995286643376,-0.1918588438173238,0.0,0,0.0,2,-1
350,-1.1012482811104225,0.22291128503014124,-0.7563115479103221,-0.9215539603657523,-0.6024144966768742,12.961481396815723,-0.2507849312877596,-0.5477225575051661,-0.6206818038571327,-0.10943513103291655,-0.10943513103291655,-1.611131490863196,-1.7389104415724013,2.197176872010205,-0.3233808333817773,-0.48329767466414153,-0.2764654065504548,-0.2638565010845042,-0.6574217746854059,1.249242194534775,-0.2507849312877596,-0.8004852897018946,-0.7612090726840087,-0.1918588438173238,0.0,0,0.0,1,-1
344,0.17473283206649173,-1.3467556803904361,0.2932876281361666,-0.8402686684545769,1.6599866130651642,-0.07715167498104597,-0.2507849312877596,-0.5477225575051661,-0.6206818038571327,-0.10943513103291655,-0.10943513103291655,0.6206818038571328,0.5750727444570147,-0.45512949491639965,-0.3233808333817773,-0.48329767466414153,-0.2764654065504548,-0.2638565010845042,-0.6574217746854059,-0.8004852897018946,3.9874804074753776,-0.8004852897018946,1.3136995286643376,-0.1918588438173238,0.0,0,0.0,2,-1
33,1.9975629937477977,-1.3467556803904361,-0.7454789725585707,-0.677698084632226,-0.6024144966768742,-0.07715167498104597,-0.2507849312877596,-0.5477225575051661,-0.6206818038571327,-0.10943513103291655,-0.10943513103291655,0.6206818038571328,-1.7389104415724013,2.197176872010205,-0.3233808333817773,2.069118169655856,-0.2764654065504548,-0.2638565010845042,-0.6574217746854059,1.249242194534775,-0.2507849312877596,-0.8004852897018946,1.3136995286643376,-0.1918588438173238,0.0,0,0.0,2,-1
31,-0.7366822487741612,0.22291128503014124,0.3207559442066792,0.29772541830187926,-0.6024144966768742,-0.07715167498104597,-0.2507849312877596,1.8257418583505534,-0.6206818038571327,-0.10943513103291655,-0.10943513103291655,0.6206818038571328,0.5750727444570147,-0.45512949491639965,-0.3233808333817773,-0.48329767466414153,-0.2764654065504548,-0.2638565010845042,-0.6574217746854059,-0.8004852897018946,-0.2507849312877596,1.249242194534775,-0.7612090726840087,-0.1918588438173238,0.0,0,0.0,7,-1
231,1.450713945243406,-1.3467556803904361,-0.2645900024790331,-0.9215539603657523,1.6599866130651642,-0.07715167498104597,-0.2507849312877596,-0.5477225575051661,-0.6206818038571327,-0.10943513103291655,-0.10943513103291655,0.6206818038571328,-1.7389104415724013,-0.45512949491639965,-0.3233808333817773,-0.48329767466414153,3.617089069035117,-0.2638565010845042,-0.6574217746854059,1.249242194534775,-0.2507849312877596,-0.8004852897018946,1.3136995286643376,-0.1918588438173238,0.0,0,0.0,2,-1
192,0.08359132398242643,0.22291128503014124,0.2801337866376113,0.5415812940354056,-0.6024144966768742,-0.07715167498104597,-0.2507849312877596,-0.5477225575051661,-0.6206818038571327,-0.10943513103291655,-0.10943513103291655,0.6206818038571328,0.5750727444570147,-0.45512949491639965,-0.3233808333817773,-0.48329767466414153,-0.2764654065504548,-0.2638565010845042,1.5210935178995666,-0.8004852897018946,-0.2507849312877596,-0.8004852897018946,1.3136995286643376,-0.1918588438173238,1.0,0,1.0,2,-1
333,-1.010106773026357,-1.3467556803904361,3.2494200660909107,2.24857242417009,1.6599866130651642,-0.07715167498104597,-0.2507849312877596,-0.5477225575051661,-0.6206818038571327,-0.10943513103291655,-0.10943513103291655,-1.611131490863196,-1.7389104415724013,2.197176872010205,3.092329219213245,-0.48329767466414153,-0.2764654065504548,-0.2638565010845042,-0.6574217746854059,1.249242194534775,-0.2507849312877596,-0.8004852897018946,-0.7612090726840087,-0.1918588438173238,1.0,0,1.0,1,-1
3,0.9038648967390142,0.22291128503014124,1.8148775873661114,1.7608606727030371,-0.6024144966768742,-0.07715167498104597,-0.2507849312877596,1.8257418583505534,-0.6206818038571327,-0.10943513103291655,-0.10943513103291655,0.6206818038571328,-1.7389104415724013,-0.45512949491639965,-0.3233808333817773,-0.48329767466414153,-0.2764654065504548,-0.2638565010845042,-0.6574217746854059,-0.8004852897018946,-0.2507849312877596,-0.8004852897018946,1.3136995286643376,-0.1918588438173238,0.0,0,0.0,2,-1
204,0.26587434015055705,-1.3467556803904361,-0.6561102259066212,-0.677698084632226,1.6599866130651642,-0.07715167498104597,-0.2507849312877596,-0.5477225575051661,-0.6206818038571327,-0.10943513103291655,-0.10943513103291655,0.6206818038571328,0.5750727444570147,-0.45512949491639965,-0.3233808333817773,-0.48329767466414153,-0.2764654065504548,-0.2638565010845042,-0.6574217746854059,1.249242194534775,-0.2507849312877596,-0.8004852897018946,1.3136995286643376,-0.1918588438173238,0.0,0,0.0,2,-1
306,-1.010106773026357,-1.3467556803904361,0.6267761978936577,0.7854371697689319,1.6599866130651642,-0.07715167498104597,-0.2507849312877596,-0.5477225575051661,-0.6206818038571327,-0.10943513103291655,-0.10943513103291655,-1.611131490863196,-1.7389104415724013,2.197176872010205,-0.3233808333817773,2.069118169655856,-0.2764654065504548,-0.2638565010845042,-0.6574217746854059,1.249242194534775,-0.2507849312877596,-0.8004852897018946,-0.7612090726840087,-0.1918588438173238,0.0,0,0.0,1,-1
109,-0.007550184101638867,0.22291128503014124,-0.6889948296530095,-0.5151275008098751,-0.6024144966768742,-0.07715167498104597,-0.2507849312877596,-0.5477225575051661,-0.6206818038571327,-0.10943513103291655,-0.10943513103291655,0.6206818038571328,0.5750727444570147,-0.45512949491639965,-0.3233808333817773,-0.48329767466414153,3.617089069035117,-0.2638565010845042,1.5210935178995666,-0.8004852897018946,-0.2507849312877596,1.249242194534775,-0.7612090726840087,-0.1918588438173238,0.0,0,0.0,3,-1
77,1.450713945243406,0.22291128503014124,0.6113010902482985,-0.7589833765434014,-0.6024144966768742,-0.07715167498104597,-0.2507849312877596,-0.5477225575051661,1.6111314908631957,-0.10943513103291655,-0.10943513103291655,0.6206818038571328,0.5750727444570147,-0.45512949491639965,-0.3233808333817773,-0.48329767466414153,-0.2764654065504548,-0.2638565010845042,1.5210935178995666,-0.8004852897018946,-0.2507849312877596,-0.8004852897018946,1.3136995286643376,-0.1918588438173238,0.0,0,0.0,2,-1
84,1.5418554533274713,-1.3467556803904361,-0.33887051917675726,-0.8402686684545769,-0.6024144966768742,-0.07715167498104597,-0.2507849312877596,-0.5477225575051661,1.6111314908631957,-0.10943513103291655,-0.10943513103291655,0.6206818038571328,0.5750727444570147,-0.45512949491639965,-0.3233808333817773,-0.48329767466414153,-0.2764654065504548,-0.2638565010845042,-0.6574217746854059,-0.8004852897018946,-0.2507849312877596,-0.8004852897018946,1.3136995286643376,-0.1918588438173238,0.0,0,0.0,2,-1
286,-0.8278237568582265,0.22291128503014124,0.6178780109975761,2.24857242417009,1.6599866130651642,-0.07715167498104597,-0.2507849312877596,-0.5477225575051661,-0.6206818038571327,-0.10943513103291655,-0.10943513103291655,0.6206818038571328,0.5750727444570147,-0.45512949491639965,-0.3233808333817773,-0.48329767466414153,-0.2764654065504548,-0.2638565010845042,-0.6574217746854059,-0.8004852897018946,-0.2507849312877596,1.249242194534775,-0.7612090726840087,-0.1918588438173238,0.0,0,0.0,7,-1
82,-1.010106773026357,-1.3467556803904361,-0.6278681544538406,-0.18998633316517338,-0.6024144966768742,-0.07715167498104597,-0.2507849312877596,-0.5477225575051661,-0.6206818038571327,-0.10943513103291655,-0.10943513103291655,-1.611131490863196,-1.7389104415724013,2.197176872010205,3.092329219213245,-0.48329767466414153,-0.2764654065504548,-0.2638565010845042,-0.6574217746854059,1.249242194534775,-0.2507849312877596,-0.8004852897018946,-0.7612090726840087,-0.1918588438173238,0.0,0,0.0,1,-1
398,0.9950064048230794,0.22291128503014124,-0.7613409578950638,-0.677698084632226,1.6599866130651642,-0.07715167498104597,-0.2507849312877596,-0.5477225575051661,-0.6206818038571327,-0.10943513103291655,-0.10943513103291655,0.6206818038571328,-1.7389104415724013,2.197176872010205,-0.3233808333817773,-0.48329767466414153,-0.2764654065504548,-0.2638565010845042,1.5210935178995666,-0.8004852897018946,-0.2507849312877596,-0.8004852897018946,1.3136995286643376,-0.1918588438173238,1.0,0,1.0,2,-1
323,-0.6455407406900959,0.22291128503014124,-0.20578459342666805,-0.18998633316517338,-0.6024144966768742,-0.07715167498104597,-0.2507849312877596,1.8257418583505534,-0.6206818038571327,-0.10943513103291655,-0.10943513103291655,0.6206818038571328,0.5750727444570147,-0.45512949491639965,-0.3233808333817773,-0.48329767466414153,-0.2764654065504548,3.7899388337592423,-0.6574217746854059,-0.8004852897018946,-0.2507849312877596,1.249242194534775,-0.7612090726840087,-0.1918588438173238,0.0,0,0.0,7,-1
5,-0.007550184101638867,-1.3467556803904361,2.2686851190662702,1.2731489212359846,-0.6024144966768742,-0.07715167498104597,3.9874804074753776,-0.5477225575051661,-0.6206818038571327,-0.10943513103291655,-0.10943513103291655,0.6206818038571328,-1.7389104415724013,-0.45512949491639965,-0.3233808333817773,2.069118169655856,-0.2764654065504548,-0.2638565010845042,-0.6574217746854059,1.249242194534775,-0.2507849312877596,1.249242194534775,-0.7612090726840087,-0.1918588438173238,0.0,1,1.0,5,-1
97,-0.09869169218570417,0.22291128503014124,-0.2200990679986253,-0.18998633316517338,-0.6024144966768742,-0.07715167498104597,-0.2507849312877596,-0.5477225575051661,-0.6206818038571327,-0.10943513103291655,-0.10943513103291655,0.6206818038571328,0.5750727444570147,-0.45512949491639965,3.092329219213245,-0.48329767466414153,-0.2764654065504548,-0.2638565010845042,1.5210935178995666,-0.8004852897018946,-0.2507849312877596,1.249242194534775,-0.7612090726840087,-0.1918588438173238,0.0,0,0.0,8,-1
266,0.08359132398242643,0.22291128503014124,1.2043845907566904,1.2731489212359846,-0.6024144966768742,-0.07715167498104597,-0.2507849312877596,-0.5477225575051661,-0.6206818038571327,-0.10943513103291655,-0.10943513103291655,0.6206818038571328,0.5750727444570147,-0.45512949491639965,-0.3233808333817773,2.069118169655856,-0.2764654065504548,-0.2638565010845042,-0.6574217746854059,1.249242194534775,-0.2507849312877596,-0.8004852897018946,1.3136995286643376,-0.1918588438173238,0.0,0,0.0,2,-1
357,-0.8278237568582265,1.7925782504507186,0.4921427613790325,1.2731489212359846,-0.6024144966768742,-0.07715167498104597,-0.2507849312877596,-0.5477225575051661,1.6111314908631957,-0.10943513103291655,-0.10943513103291655,0.6206818038571328,0.5750727444570147,-0.45512949491639965,-0.3233808333817773,-0.48329767466414153,-0.2764654065504548,-0.2638565010845042,-0.6574217746854059,1.249242194534775,-0.2507849312877596,1.249242194534775,-0.7612090726840087,-0.1918588438173238,1.0,0,1.0,9,-1
380,0.35701584823462235,0.22291128503014124,-0.3787189213635573,-0.0274157493428225,-0.6024144966768742,-0.07715167498104597,-0.2507849312877596,1.8257418583505534,-0.6206818038571327,-0.10943513103291655,-0.10943513103291655,0.6206818038571328,0.5750727444570147,-0.45512949491639965,-0.3233808333817773,2.069118169655856,-0.2764654065504548,-0.2638565010845042,-0.6574217746854059,-0.8004852897018946,-0.2507849312877596,-0.8004852897018946,1.3136995286643376,-0.1918588438173238,0.0,0,0.0,2,-1
381,0.26587434015055705,1.7925782504507186,3.7856325460026072,-0.18998633316517338,1.6599866130651642,-0.07715167498104597,-0.2507849312877596,-0.5477225575051661,-0.6206818038571327,-0.10943513103291655,-0.10943513103291655,-1.611131490863196,-1.7389104415724013,-0.45512949491639965,-0.3233808333817773,-0.48329767466414153,-0.2764654065504548,-0.2638565010845042,1.5210935178995666,-0.8004852897018946,-0.2507849312877596,-0.8004852897018946,1.3136995286643376,-0.1918588438173238,1.0,0,1.0,2,-1
118,-1.1012482811104225,0.22291128503014124,0.4217310215926481,1.0292930455024583,-0.6024144966768742,-0.07715167498104597,-0.2507849312877596,1.8257418583505534,-0.6206818038571327,-0.10943513103291655,-0.10943513103291655,-1.611131490863196,0.5750727444570147,-0.45512949491639965,-0.3233808333817773,-0.48329767466414153,3.617089069035117,-0.2638565010845042,-0.6574217746854059,-0.8004852897018946,-0.2507849312877596,-0.8004852897018946,-0.7612090726840087,-0.1918588438173238,1.0,0,1.0,7,-1
250,0.35701584823462235,-1.3467556803904361,-0.9768318318566909,-1.1654098360992786,1.6599866130651642,-0.07715167498104597,-0.2507849312877596,-0.5477225575051661,-0.6206818038571327,-0.10943513103291655,-0.10943513103291655,-1.611131490863196,0.5750727444570147,-0.45512949491639965,-0.3233808333817773,-0.48329767466414153,-0.2764654065504548,3.7899388337592423,-0.6574217746854059,-0.8004852897018946,-0.2507849312877596,-0.8004852897018946,1.3136995286643376,-0.1918588438173238,0.0,0,0.0,2,-1
9,-0.6455407406900959,1.7925782504507186,0.7904254612433314,0.7854371697689319,1.6599866130651642,-0.07715167498104597,-0.2507849312877596,-0.5477225575051661,-0.6206818038571327,-0.10943513103291655,-0.10943513103291655,0.6206818038571328,0.5750727444570147,-0.45512949491639965,-0.3233808333817773,-0.48329767466414153,-0.2764654065504548,-0.2638565010845042,1.5210935178995666,-0.8004852897018946,-0.2507849312877596,1.249242194534775,-0.7612090726840087,-0.1918588438173238,1.0,0,1.0,6,-1
196,-0.6455407406900959,0.22291128503014124,-0.6998274050047609,-1.1654098360992786,-0.6024144966768742,-0.07715167498104597,-0.2507849312877596,-0.5477225575051661,1.6111314908631957,-0.10943513103291655,-0.10943513103291655,-1.611131490863196,0.5750727444570147,-0.45512949491639965,-0.3233808333817773,-0.48329767466414153,-0.2764654065504548,-0.2638565010845042,-0.6574217746854059,1.249242194534775,-0.2507849312877596,1.249242194534775,-0.7612090726840087,-0.1918588438173238,0.0,1,1.0,9,-1
81,1.0861479129071447,0.22291128503014124,-0.7652097348064036,-0.4338422088986997,-0.6024144966768742,-0.07715167498104597,-0.2507849312877596,-0.5477225575051661,1.6111314908631957,-0.10943513103291655,-0.10943513103291655,0.6206818038571328,0.5750727444570147,-0.45512949491639965,-0.3233808333817773,-0.48329767466414153,3.617089069035117,-0.2638565010845042,-0.6574217746854059,1.249242194534775,-0.2507849312877596,-0.8004852897018946,1.3136995286643376,-0.1918588438173238,0.0,0,0.0,2,-1
239,0.35701584823462235,0.22291128503014124,-0.2587868371120233,0.7854371697689319,-0.6024144966768742,-0.07715167498104597,-0.2507849312877596,-0.5477225575051661,1.6111314908631957,-0.10943513103291655,-0.10943513103291655,0.6206818038571328,0.5750727444570147,-0.45512949491639965,-0.3233808333817773,-0.48329767466414153,-0.2764654065504548,-0.2638565010845042,-0.6574217746854059,-0.8004852897018946,-0.2507849312877596,-0.8004852897018946,1.3136995286643376,-0.1918588438173238,0.0,1,1.0,2,-1
290,-0.8278237568582265,0.22291128503014124,-0.818211978491759,-0.677698084632226,-0.6024144966768742,-0.07715167498104597,-0.2507849312877596,-0.5477225575051661,-0.6206818038571327,-0.10943513103291655,-0.10943513103291655,0.6206818038571328,0.5750727444570147,-0.45512949491639965,-0.3233808333817773,-0.48329767466414153,-0.2764654065504548,-0.2638565010845042,-0.6574217746854059,1.249242194534775,-0.2507849312877596,1.249242194534775,-0.7612090726840087,-0.1918588438173238,0.0,0,0.0,9,-1
211,0.9038648967390142,-1.3467556803904361,0.24918357134689284,1.2731489212359846,-0.6024144966768742,-0.07715167498104597,-0.2507849312877596,-0.5477225575051661,1.6111314908631957,-0.10943513103291655,-0.10943513103291655,-1.611131490863196,0.5750727444570147,-0.45512949491639965,-0.3233808333817773,2.069118169655856,-0.2764654065504548,-0.2638565010845042,-0.6574217746854059,1.249242194534775,-0.2507849312877596,-0.8004852897018946,1.3136995286643376,-0.1918588438173238,0.0,1,1.0,2,-1
359,-1.1012482811104225,0.22291128503014124,-0.30366464928356507,0.7854371697689319,-0.6024144966768742,-0.07715167498104597,-0.2507849312877596,1.8257418583505534,-0.6206818038571327,-0.10943513103291655,-0.10943513103291655,-1.611131490863196,-1.7389104415724013,2.197176872010205,-0.3233808333817773,-0.48329767466414153,-0.2764654065504548,-0.2638565010845042,-0.6574217746854059,-0.8004852897018946,-0.2507849312877596,-0.8004852897018946,-0.7612090726840087,-0.1918588438173238,1.0,1,0.0,1,-1
227,1.6329969614115365,1.7925782504507186,1.8083006666168338,-0.677698084632226,-0.6024144966768742,-0.07715167498104597,-0.2507849312877596,1.8257418583505534,-0.6206818038571327,-0.10943513103291655,-0.10943513103291655,0.6206818038571328,-1.7389104415724013,-0.45512949491639965,-0.3233808333817773,-0.48329767466414153,-0.2764654065504548,-0.2638565010845042,-0.6574217746854059,-0.8004852897018946,-0.2507849312877596,-0.8004852897018946,1.3136995286643376,-0.1918588438173238,1.0,0,1.0,2,-1
362,0.08359132398242643,0.22291128503014124,-0.3651782021738679,-0.677698084632226,1.6599866130651642,-0.07715167498104597,-0.2507849312877596,-0.5477225575051661,-0.6206818038571327,-0.10943513103291655,-0.10943513103291655,-1.611131490863196,0.5750727444570147,-0.45512949491639965,-0.3233808333817773,-0.48329767466414153,-0.2764654065504548,-0.2638565010845042,-0.6574217746854059,-0.8004852897018946,3.9874804074753776,-0.8004852897018946,1.3136995286643376,-0.1918588438173238,0.0,0,0.0,2,-1
7,-0.007550184101638867,1.7925782504507186,1.4535338238469737,1.2731489212359846,1.6599866130651642,-0.07715167498104597,-0.2507849312877596,-0.5477225575051661,-0.6206818038571327,-0.10943513103291655,-0.10943513103291655,0.6206818038571328,-1.7389104415724013,2.197176872010205,-0.3233808333817773,-0.48329767466414153,-0.2764654065504548,-0.2638565010845042,1.5210935178995666,-0.8004852897018946,-0.2507849312877596,1.249242194534775,-0.7612090726840087,-0.1918588438173238,0.0,1,1.0,1,-1
155,-1.3746728053626183,0.22291128503014124,-0.7385151741181589,-0.677698084632226,-0.6024144966768742,-0.07715167498104597,-0.2507849312877596,1.8257418583505534,-0.6206818038571327,-0.10943513103291655,-0.10943513103291655,-1.611131490863196,-1.7389104415724013,2.197176872010205,-0.3233808333817773,-0.48329767466414153,-0.2764654065504548,-0.2638565010845042,-0.6574217746854059,-0.8004852897018946,-0.2507849312877596,-0.8004852897018946,-0.7612090726840087,-0.1918588438173238,1.0,0,1.0,1,-1
334,-1.1012482811104225,0.22291128503014124,0.35557493640873744,0.29772541830187926,-0.6024144966768742,-0.07715167498104597,-0.2507849312877596,1.8257418583505534,-0.6206818038571327,-0.10943513103291655,-0.10943513103291655,0.6206818038571328,-1.7389104415724013,2.197176872010205,-0.3233808333817773,-0.48329767466414153,-0.2764654065504548,-0.2638565010845042,-0.6574217746854059,-0.8004852897018946,-0.2507849312877596,-0.8004852897018946,-0.7612090726840087,-0.1918588438173238,1.0,0,1.0,1,-1
228,-1.1923897891944877,0.22291128503014124,-0.6626871466558988,-0.9215539603657523,-0.6024144966768742,-0.07715167498104597,-0.2507849312877596,-0.5477225575051661,1.6111314908631957,-0.10943513103291655,-0.10943513103291655,0.6206818038571328,0.5750727444570147,-0.45512949491639965,-0.3233808333817773,-0.48329767466414153,-0.2764654065504548,-0.2638565010845042,-0.6574217746854059,1.249242194534775,-0.2507849312877596,-0.8004852897018946,-0.7612090726840087,-0.1918588438173238,1.0,0,1.0,9,-1
352,0.26587434015055705,1.7925782504507186,0.014735690519700752,-0.18998633316517338,1.6599866130651642,-0.07715167498104597,-0.2507849312877596,-0.5477225575051661,-0.6206818038571327,-0.10943513103291655,-0.10943513103291655,0.6206818038571328,0.5750727444570147,-0.45512949491639965,-0.3233808333817773,2.069118169655856,-0.2764654065504548,-0.2638565010845042,-0.6574217746854059,1.249242194534775,-0.2507849312877596,-0.8004852897018946,1.3136995286643376,-0.1918588438173238,0.0,0,0.0,2,-1
212,1.3595724371593407,0.22291128503014124,0.8132512450202362,0.5415812940354056,-0.6024144966768742,-0.07715167498104597,-0.2507849312877596,-0.5477225575051661,-0.6206818038571327,-0.10943513103291655,-0.10943513103291655,0.6206818038571328,0.5750727444570147,-0.45512949491639965,-0.3233808333817773,-0.48329767466414153,-0.2764654065504548,-0.2638565010845042,-0.6574217746854059,-0.8004852897018946,-0.2507849312877596,-0.8004852897018946,1.3136995286643376,-0.1918588438173238,1.0,1,0.0,2,-1
79,-1.1923897891944877,0.22291128503014124,0.2480229382734909,0.7854371697689319,-0.6024144966768742,-0.07715167498104597,-0.2507849312877596,1.8257418583505534,-0.6206818038571327,-0.10943513103291655,-0.10943513103291655,0.6206818038571328,0.5750727444570147,-0.45512949491639965,-0.3233808333817773,-0.48329767466414153,-0.2764654065504548,-0.2638565010845042,1.5210935178995666,-0.8004852897018946,-0.2507849312877596,-0.8004852897018946,-0.7612090726840087,-0.1918588438173238,0.0,0,0.0,8,-1
148,-0.6455407406900959,0.22291128503014124,0.8434277049286867,1.2731489212359846,-0.6024144966768742,-0.07715167498104597,-0.2507849312877596,1.8257418583505534,-0.6206818038571327,-0.10943513103291655,-0.10943513103291655,0.6206818038571328,0.5750727444570147,-0.45512949491639965,-0.3233808333817773,-0.48329767466414153,-0.2764654065504548,-0.2638565010845042,-0.6574217746854059,-0.8004852897018946,-0.2507849312877596,1.249242194534775,-0.7612090726840087,-0.1918588438173238,0.0,0,0.0,7,-1
302,0.17473283206649173,-1.3467556803904361,-0.7145287572678521,0.29772541830187926,1.6599866130651642,-0.07715167498104597,-0.2507849312877596,-0.5477225575051661,-0.6206818038571327,-0.10943513103291655,-0.10943513103291655,0.6206818038571328,0.5750727444570147,-0.45512949491639965,-0.3233808333817773,2.069118169655856,-0.2764654065504548,-0.2638565010845042,-0.6574217746854059,-0.8004852897018946,3.9874804074753776,-0.8004852897018946,1.3136995286643376,-0.1918588438173238,1.0,0,1.0,2,-1
342,-0.9189652649422919,0.22291128503014124,0.008545647461557067,-0.18998633316517338,-0.6024144966768742,-0.07715167498104597,-0.2507849312877596,-0.5477225575051661,1.6111314908631957,-0.10943513103291655,-0.10943513103291655,0.6206818038571328,-1.7389104415724013,2.197176872010205,-0.3233808333817773,-0.48329767466414153,3.617089069035117,-0.2638565010845042,1.5210935178995666,-0.8004852897018946,-0.2507849312877596,-0.8004852897018946,-0.7612090726840087,-0.1918588438173238,0.0,0,0.0,1,-1
133,1.0861479129071447,0.22291128503014124,-0.4669270349421048,-0.18998633316517338,-0.6024144966768742,-0.07715167498104597,-0.2507849312877596,1.8257418583505534,-0.6206818038571327,-0.10943513103291655,-0.10943513103291655,0.6206818038571328,-1.7389104415724013,-0.45512949491639965,-0.3233808333817773,-0.48329767466414153,-0.2764654065504548,-0.2638565010845042,-0.6574217746854059,1.249242194534775,-0.2507849312877596,-0.8004852897018946,1.3136995286643376,-0.1918588438173238,0.0,0,0.0,2,-1
311,-0.9189652649422919,0.22291128503014124,0.8975905816874439,0.29772541830187926,-0.6024144966768742,-0.07715167498104597,-0.2507849312877596,1.8257418583505534,-0.6206818038571327,-0.10943513103291655,-0.10943513103291655,0.6206818038571328,0.5750727444570147,-0.45512949491639965,3.092329219213245,-0.48329767466414153,-0.2764654065504548,-0.2638565010845042,-0.6574217746854059,1.249242194534775,-0.2507849312877596,-0.8004852897018946,-0.7612090726840087,-0.1918588438173238,0.0,0,0.0,7,-1
0,2.908978074588451,0.22291128503014124,-0.7822323532162988,-1.1654098360992786,-0.6024144966768742,-0.07715167498104597,-0.2507849312877596,-0.5477225575051661,1.6111314908631957,-0.10943513103291655,-0.10943513103291655,0.6206818038571328,0.5750727444570147,-0.45512949491639965,-0.3233808333817773,2.069118169655856,-0.2764654065504548,-0.2638565010845042,-0.6574217746854059,-0.8004852897018946,-0.2507849312877596,-0.8004852897018946,-0.7612090726840087,5.212165257037296,0.0,0,0.0,0,-1
316,0.26587434015055705,-1.3467556803904361,-0.9605829688290637,-0.677698084632226,-0.6024144966768742,-0.07715167498104597,-0.2507849312877596,1.8257418583505534,-0.6206818038571327,-0.10943513103291655,-0.10943513103291655,0.6206818038571328,0.5750727444570147,-0.45512949491639965,-0.3233808333817773,-0.48329767466414153,-0.2764654065504548,-0.2638565010845042,-0.6574217746854059,-0.8004852897018946,-0.2507849312877596,-0.8004852897018946,1.3136995286643376,-0.1918588438173238,0.0,0,0.0,2,-1
172,-0.09869169218570417,1.7925782504507186,-0.43597681965138635,0.29772541830187926,-0.6024144966768742,-0.07715167498104597,-0.2507849312877596,1.8257418583505534,-0.6206818038571327,-0.10943513103291655,-0.10943513103291655,-1.611131490863196,0.5750727444570147,-0.45512949491639965,-0.3233808333817773,-0.48329767466414153,-0.2764654065504548,-0.2638565010845042,1.5210935178995666,-0.8004852897018946,-0.2507849312877596,1.249242194534775,-0.7612090726840087,-0.1918588438173238,1.0,0,1.0,8,-1
125,-0.46325772452196534,0.22291128503014124,-0.41392479125674947,-0.677698084632226,1.6599866130651642,-0.07715167498104597,-0.2507849312877596,-0.5477225575051661,-0.6206818038571327,-0.10943513103291655,-0.10943513103291655,0.6206818038571328,0.5750727444570147,-0.45512949491639965,-0.3233808333817773,-0.48329767466414153,-0.2764654065504548,-0.2638565010845042,-0.6574217746854059,-0.8004852897018946,-0.2507849312877596,1.249242194534775,-0.7612090726840087,-0.1918588438173238,0.0,0,0.0,7,-1
394,-0.37211621643790005,1.7925782504507186,-0.30366464928356507,-0.9215539603657523,-0.6024144966768742,-0.07715167498104597,-0.2507849312877596,1.8257418583505534,-0.6206818038571327,-0.10943513103291655,-0.10943513103291655,0.6206818038571328,0.5750727444570147,-0.45512949491639965,-0.3233808333817773,-0.48329767466414153,-0.2764654065504548,-0.2638565010845042,-0.6574217746854059,1.249242194534775,-0.2507849312877596,1.249242194534775,-0.7612090726840087,-0.1918588438173238,0.0,0,0.0,7,-1
90,1.9064214856637325,0.22291128503014124,-0.9954019610311219,-0.677698084632226,-0.6024144966768742,-0.07715167498104597,-0.2507849312877596,-0.5477225575051661,1.6111314908631957,-0.10943513103291655,-0.10943513103291655,0.6206818038571328,0.5750727444570147,-0.45512949491639965,-0.3233808333817773,-0.48329767466414153,-0.2764654065504548,-0.2638565010845042,-0.6574217746854059,1.249242194534775,-0.2507849312877596,-0.8004852897018946,1.3136995286643376,-0.1918588438173238,0.0,0,0.0,2,-1
181,-0.46325772452196534,1.7925782504507186,0.48904773984996064,1.2731489212359846,-0.6024144966768742,-0.07715167498104597,-0.2507849312877596,-0.5477225575051661,-0.6206818038571327,-0.10943513103291655,-0.10943513103291655,0.6206818038571328,0.5750727444570147,-0.45512949491639965,-0.3233808333817773,-0.48329767466414153,-0.2764654065504548,-0.2638565010845042,1.5210935178995666,-0.8004852897018946,-0.2507849312877596,1.249242194534775,-0.7612090726840087,-0.1918588438173238,1.0,0,1.0,6,-1
274,-0.09869169218570417,-1.3467556803904361,3.4072661640735746,0.7854371697689319,-0.6024144966768742,-0.07715167498104597,-0.2507849312877596,-0.5477225575051661,-0.6206818038571327,9.137833441248533,-0.10943513103291655,0.6206818038571328,0.5750727444570147,-0.45512949491639965,-0.3233808333817773,-0.48329767466414153,-0.2764654065504548,-0.2638565010845042,-0.6574217746854059,-0.8004852897018946,-0.2507849312877596,1.249242194534775,-0.7612090726840087,-0.1918588438173238,1.0,0,1.0,5,-1
69,-0.9189652649422919,0.22291128503014124,-0.30830718157717285,1.2731489212359846,-0.6024144966768742,-0.07715167498104597,-0.2507849312877596,-0.5477225575051661,1.6111314908631957,-0.10943513103291655,-0.10943513103291655,-1.611131490863196,0.5750727444570147,-0.45512949491639965,-0.3233808333817773,2.069118169655856,-0.2764654065504548,-0.2638565010845042,-0.6574217746854059,1.249242194534775,-0.2507849312877596,-0.8004852897018946,-0.7612090726840087,-0.1918588438173238,0.0,0,0.0,9,-1
291,-0.6455407406900959,1.7925782504507186,2.401384167125226,1.2731489212359846,1.6599866130651642,-0.07715167498104597,-0.2507849312877596,-0.5477225575051661,-0.6206818038571327,-0.10943513103291655,-0.10943513103291655,0.6206818038571328,-1.7389104415724013,2.197176872010205,-0.3233808333817773,-0.48329767466414153,-0.2764654065504548,-0.2638565010845042,1.5210935178995666,-0.8004852897018946,-0.2507849312877596,1.249242194534775,-0.7612090726840087,-0.1918588438173238,1.0,0,1.0,1,-1
131,-0.5543992326060306,0.22291128503014124,1.429934284687801,1.2731489212359846,-0.6024144966768742,-0.07715167498104597,3.9874804074753776,-0.5477225575051661,-0.6206818038571327,-0.10943513103291655,-0.10943513103291655,0.6206818038571328,0.5750727444570147,-0.45512949491639965,-0.3233808333817773,-0.48329767466414153,-0.2764654065504548,-0.2638565010845042,-0.6574217746854059,-0.8004852897018946,-0.2507849312877596,1.249242194534775,-0.7612090726840087,-0.1918588438173238,1.0,0,1.0,5,-1
300,1.724138469495602,-2.9164226458110134,-0.974510565709887,-1.1654098360992786,1.6599866130651642,-0.07715167498104597,-0.2507849312877596,-0.5477225575051661,-0.6206818038571327,-0.10943513103291655,-0.10943513103291655,-1.611131490863196,0.5750727444570147,-0.45512949491639965,-0.3233808333817773,-0.48329767466414153,-0.2764654065504548,-0.2638565010845042,-0.6574217746854059,1.249242194534775,-0.2507849312877596,-0.8004852897018946,1.3136995286643376,-0.1918588438173238,0.0,0,0.0,2,-1
326,1.2684309290752753,0.22291128503014124,1.0097851121162982,-0.677698084632226,-0.6024144966768742,-0.07715167498104597,-0.2507849312877596,1.8257418583505534,-0.6206818038571327,-0.10943513103291655,-0.10943513103291655,0.6206818038571328,-1.7389104415724013,2.197176872010205,-0.3233808333817773,2.069118169655856,-0.2764654065504548,-0.2638565010845042,-0.6574217746854059,1.249242194534775,-0.2507849312877596,-0.8004852897018946,1.3136995286643376,-0.1918588438173238,0.0,1,1.0,2,-1
144,-1.1012482811104225,0.22291128503014124,-0.34931621683737474,0.05386954256835294,-0.6024144966768742,-0.07715167498104597,-0.2507849312877596,1.8257418583505534,-0.6206818038571327,-0.10943513103291655,-0.10943513103291655,-1.611131490863196,0.5750727444570147,-0.45512949491639965,-0.3233808333817773,-0.48329767466414153,-0.2764654065504548,-0.2638565010845042,-0.6574217746854059,1.249242194534775,-0.2507849312877596,-0.8004852897018946,-0.7612090726840087,-0.1918588438173238,0.0,0,0.0,7,-1
135,0.26587434015055705,0.22291128503014124,-0.7547640371457861,-0.677698084632226,-0.6024144966768742,-0.07715167498104597,-0.2507849312877596,-0.5477225575051661,1.6111314908631957,-0.10943513103291655,-0.10943513103291655,-1.611131490863196,0.5750727444570147,-0.45512949491639965,-0.3233808333817773,2.069118169655856,-0.2764654065504548,-0.2638565010845042,-0.6574217746854059,1.249242194534775,-0.2507849312877596,-0.8004852897018946,1.3136995286643376,-0.1918588438173238,0.0,0,0.0,2,-1
164,0.08359132398242643,0.22291128503014124,-0.8828205529111336,1.2731489212359846,1.6599866130651642,-0.07715167498104597,-0.2507849312877596,-0.5477225575051661,-0.6206818038571327,-0.10943513103291655,-0.10943513103291655,0.6206818038571328,0.5750727444570147,-0.45512949491639965,-0.3233808333817773,-0.48329767466414153,3.617089069035117,-0.2638565010845042,-0.6574217746854059,1.249242194534775,-0.2507849312877596,-0.8004852897018946,1.3136995286643376,-0.1918588438173238,0.0,0,0.0,2,-1
28,-0.09869169218570417,0.22291128503014124,-0.30018275006335926,-1.0841245441881031,-0.6024144966768742,-0.07715167498104597,-0.2507849312877596,-0.5477225575051661,1.6111314908631957,-0.10943513103291655,-0.10943513103291655,0.6206818038571328,0.5750727444570147,-0.45512949491639965,-0.3233808333817773,-0.48329767466414153,-0.2764654065504548,-0.2638565010845042,1.5210935178995666,-0.8004852897018946,-0.2507849312877596,1.249242194534775,-0.7612090726840087,-0.1918588438173238,0.0,0,0.0,8,-1
193,-0.5543992326060306,0.22291128503014124,-0.4189542012414912,-1.1654098360992786,-0.6024144966768742,-0.07715167498104597,-0.2507849312877596,-0.5477225575051661,1.6111314908631957,-0.10943513103291655,-0.10943513103291655,0.6206818038571328,-1.7389104415724013,2.197176872010205,-0.3233808333817773,-0.48329767466414153,-0.2764654065504548,-0.2638565010845042,-0.6574217746854059,1.249242194534775,-0.2507849312877596,1.249242194534775,-0.7612090726840087,-0.1918588438173238,0.0,0,0.0,1,-1
388,-0.7366822487741612,0.22291128503014124,-0.3346148645742835,-0.4338422088986997,-0.6024144966768742,-0.07715167498104597,-0.2507849312877596,-0.5477225575051661,-0.6206818038571327,-0.10943513103291655,-0.10943513103291655,0.6206818038571328,0.5750727444570147,-0.45512949491639965,-0.3233808333817773,-0.48329767466414153,3.617089069035117,-0.2638565010845042,1.5210935178995666,-0.8004852897018946,-0.2507849312877596,1.249242194534775,-0.7612090726840087,-0.1918588438173238,0.0,0,0.0,3,-1
169,-0.37211621643790005,0.22291128503014124,-0.4858840418076698,0.29772541830187926,-0.6024144966768742,-0.07715167498104597,-0.2507849312877596,-0.5477225575051661,-0.6206818038571327,-0.10943513103291655,-0.10943513103291655,0.6206818038571328,0.5750727444570147,-0.45512949491639965,-0.3233808333817773,-0.48329767466414153,-0.2764654065504548,-0.2638565010845042,1.5210935178995666,-0.8004852897018946,-0.2507849312877596,1.249242194534775,-0.7612090726840087,-0.1918588438173238,1.0,0,1.0,8,-1
140,-0.7366822487741612,-2.9164226458110134,-0.9601960911379297,-1.1654098360992786,1.6599866130651642,-0.07715167498104597,-0.2507849312877596,-0.5477225575051661,-0.6206818038571327,-0.10943513103291655,-0.10943513103291655,0.6206818038571328,0.5750727444570147,-0.45512949491639965,-0.3233808333817773,-0.48329767466414153,-0.2764654065504548,3.7899388337592423,-0.6574217746854059,-0.8004852897018946,3.9874804074753776,1.249242194534775,-0.7612090726840087,-0.1918588438173238,0.0,1,1.0,7,-1
173,-0.18983320026976946,0.22291128503014124,-0.6874473188884735,-1.0028392522769278,-0.6024144966768742,-0.07715167498104597,-0.2507849312877596,-0.5477225575051661,1.6111314908631957,-0.10943513103291655,-0.10943513103291655,0.6206818038571328,0.5750727444570147,-0.45512949491639965,-0.3233808333817773,-0.48329767466414153,-0.2764654065504548,-0.2638565010845042,1.5210935178995666,-0.8004852897018946,-0.2507849312877596,1.249242194534775,-0.7612090726840087,-0.1918588438173238,0.0,0,0.0,8,-1
6,1.6329969614115365,0.22291128503014124,-0.1376941197870875,0.29772541830187926,-0.6024144966768742,-0.07715167498104597,-0.2507849312877596,1.8257418583505534,-0.6206818038571327,-0.10943513103291655,-0.10943513103291655,0.6206818038571328,0.5750727444570147,-0.45512949491639965,-0.3233808333817773,-0.48329767466414153,3.617089069035117,-0.2638565010845042,-0.6574217746854059,1.249242194534775,-0.2507849312877596,-0.8004852897018946,1.3136995286643376,-0.1918588438173238,0.0,0,0.0,2,-1
73,0.539298864402753,-1.3467556803904361,1.0689773988597973,1.7608606727030371,-0.6024144966768742,-0.07715167498104597,-0.2507849312877596,-0.5477225575051661,-0.6206818038571327,-0.10943513103291655,-0.10943513103291655,-1.611131490863196,0.5750727444570147,-0.45512949491639965,-0.3233808333817773,-0.48329767466414153,-0.2764654065504548,-0.2638565010845042,1.5210935178995666,-0.8004852897018946,-0.2507849312877596,-0.8004852897018946,1.3136995286643376,-0.1918588438173238,0.0,0,0.0,2,-1
238,-0.007550184101638867,0.22291128503014124,-0.7350332748979531,-0.677698084632226,-0.6024144966768742,-0.07715167498104597,-0.2507849312877596,-0.5477225575051661,1.6111314908631957,-0.10943513103291655,-0.10943513103291655,-1.611131490863196,0.5750727444570147,-0.45512949491639965,-0.3233808333817773,-0.48329767466414153,-0.2764654065504548,-0.2638565010845042,-0.6574217746854059,1.249242194534775,-0.2507849312877596,1.249242194534775,-0.7612090726840087,-0.1918588438173238,0.0,0,0.0,9,-1
145,-0.46325772452196534,0.22291128503014124,0.14511347243185213,2.24857242417009,-0.6024144966768742,-0.07715167498104597,-0.2507849312877596,-0.5477225575051661,-0.6206818038571327,-0.10943513103291655,-0.10943513103291655,0.6206818038571328,0.5750727444570147,-0.45512949491639965,3.092329219213245,-0.48329767466414153,-0.2764654065504548,-0.2638565010845042,1.5210935178995666,-0.8004852897018946,-0.2507849312877596,1.249242194534775,-0.7612090726840087,-0.1918588438173238,0.0,1,1.0,6,-1
234,0.6304403724868183,-1.3467556803904361,-0.6371532190410562,-1.3279804199216294,-0.6024144966768742,-0.07715167498104597,-0.2507849312877596,-0.5477225575051661,1.6111314908631957,-0.10943513103291655,-0.10943513103291655,0.6206818038571328,0.5750727444570147,-0.45512949491639965,-0.3233808333817773,-0.48329767466414153,-0.2764654065504548,-0.2638565010845042,-0.6574217746854059,1.249242194534775,-0.2507849312877596,-0.8004852897018946,1.3136995286643376,-0.1918588438173238,0.0,0,0.0,2,-1
220,-0.8278237568582265,-1.3467556803904361,-0.9926938171931841,-0.677698084632226,-0.6024144966768742,-0.07715167498104597,-0.2507849312877596,-0.5477225575051661,1.6111314908631957,-0.10943513103291655,-0.10943513103291655,0.6206818038571328,0.5750727444570147,-0.45512949491639965,-0.3233808333817773,-0.48329767466414153,-0.2764654065504548,-0.2638565010845042,1.5210935178995666,-0.8004852897018946,-0.2507849312877596,1.249242194534775,-0.7612090726840087,-0.1918588438173238,0.0,0,0.0,8,-1
132,-0.7366822487741612,-1.3467556803904361,-0.18682758656110302,-0.4338422088986997,-0.6024144966768742,-0.07715167498104597,-0.2507849312877596,1.8257418583505534,-0.6206818038571327,-0.10943513103291655,-0.10943513103291655,0.6206818038571328,0.5750727444570147,-0.45512949491639965,-0.3233808333817773,-0.48329767466414153,-0.2764654065504548,-0.2638565010845042,-0.6574217746854059,1.249242194534775,-0.2507849312877596,1.249242194534775,-0.7612090726840087,-0.1918588438173238,0.0,0,0.0,7,-1
185,-0.37211621643790005,0.22291128503014124,-0.7083387142097085,-0.4338422088986997,-0.6024144966768742,-0.07715167498104597,-0.2507849312877596,-0.5477225575051661,1.6111314908631957,-0.10943513103291655,-0.10943513103291655,0.6206818038571328,0.5750727444570147,-0.45512949491639965,-0.3233808333817773,-0.48329767466414153,-0.2764654065504548,-0.2638565010845042,-0.6574217746854059,1.249242194534775,-0.2507849312877596,1.249242194534775,-0.7612090726840087,-0.1918588438173238,0.0,0,0.0,9,-1
41,-0.8278237568582265,0.22291128503014124,-0.7864880078187725,-0.677698084632226,-0.6024144966768742,-0.07715167498104597,-0.2507849312877596,-0.5477225575051661,1.6111314908631957,-0.10943513103291655,-0.10943513103291655,0.6206818038571328,0.5750727444570147,-0.45512949491639965,-0.3233808333817773,-0.48329767466414153,3.617089069035117,-0.2638565010845042,1.5210935178995666,-0.8004852897018946,-0.2507849312877596,1.249242194534775,-0.7612090726840087,-0.1918588438173238,0.0,0,0.0,3,-1
108,-0.46325772452196534,0.22291128503014124,1.7525902790935406,0.29772541830187926,-0.6024144966768742,-0.07715167498104597,-0.2507849312877596,1.8257418583505534,-0.6206818038571327,-0.10943513103291655,-0.10943513103291655,-1.611131490863196,0.5750727444570147,-0.45512949491639965,-0.3233808333817773,2.069118169655856,-0.2764654065504548,-0.2638565010845042,-0.6574217746854059,-0.8004852897018946,-0.2507849312877596,1.249242194534775,-0.7612090726840087,-0.1918588438173238,0.0,0,0.0,7,-1
56,1.5418554533274713,1.7925782504507186,1.2678325321026631,-0.677698084632226,-0.6024144966768742,-0.07715167498104597,-0.2507849312877596,-0.5477225575051661,1.6111314908631957,-0.10943513103291655,-0.10943513103291655,0.6206818038571328,0.5750727444570147,-0.45512949491639965,-0.3233808333817773,2.069118169655856,-0.2764654065504548,-0.2638565010845042,1.5210935178995666,-0.8004852897018946,-0.2507849312877596,-0.8004852897018946,1.3136995286643376,-0.1918588438173238,1.0,0,1.0,2,-1
